5.107241682708263397e-03
-2.886190311983227730e-03
2.719036820053588599e-05
5.428334770840592682e-05
3.627972677350044250e-03
1.273538568057119846e-03
-9.484860929660499096e-04
-1.784339314326643944e-03
-2.898190636187791824e-03
4.634425975382328033e-03
7.213559933006763458e-03
-8.422139217145740986e-04
3.657171619124710560e-04
-2.270325785502791405e-03
-1.664888928644359112e-03
2.715658956731203943e-05
-1.454525510780513287e-03
-1.231989939697086811e-03
1.343937707133591175e-03
2.085852203890681267e-03
2.201178867835551500e-04
-2.582527231425046921e-03
-1.498825295129790902e-04
3.872945904731750488e-03
-1.787542481906712055e-03
-2.519299509003758430e-03
3.919834271073341370e-03
-1.840981305576860905e-03
8.670753799378871918e-03
8.523232303559780121e-03
1.802322512958198786e-04
-6.453754613175988197e-04
-7.999539957381784916e-04
4.407623317092657089e-03
6.337920785881578922e-04
-1.458002720028162003e-03
8.548044133931398392e-04
1.205300912261009216e-03
2.643277170136570930e-03
2.619769889861345291e-03
7.574855349957942963e-03
2.040266757830977440e-03
2.871224656701087952e-03
3.015511203557252884e-03
-1.354916836135089397e-03
-4.814560234081000090e-04
-7.496699690818786621e-04
6.040803782525472343e-06
-7.982577080838382244e-04
-1.089520519599318504e-03
3.909599967300891876e-03
-1.234662020578980446e-03
-1.327780657447874546e-03
1.022369397105649114e-04
1.449639676138758659e-03
5.685423820978030562e-05
-1.447164919227361679e-03
8.141263970173895359e-04
-3.317240625619888306e-03
-2.749332088569644839e-05
-2.387266838923096657e-03
-1.455011370126157999e-04
-1.681481953710317612e-03
-1.371352700516581535e-04
1.002174735069274902e+00
9.984912276268005371e-01
1.000000000000000000e+00
1.000000000000000000e+00
1.001701831817626953e+00
1.001528739929199219e+00
9.995931386947631836e-01
9.992609024047851562e-01
9.985047578811645508e-01
1.002384185791015625e+00
1.003376007080078125e+00
9.994555711746215820e-01
1.000000000000000000e+00
9.988189339637756348e-01
9.991837739944458008e-01
1.000000000000000000e+00
9.993433356285095215e-01
9.993904829025268555e-01
1.000001430511474609e+00
1.001000523567199707e+00
1.000000000000000000e+00
9.988172054290771484e-01
9.998405575752258301e-01
1.001689434051513672e+00
9.990361332893371582e-01
9.987292885780334473e-01
1.001739025115966797e+00
9.991906881332397461e-01
1.003888368606567383e+00
1.003561139106750488e+00
1.000000000000000000e+00
9.997151494026184082e-01
9.995760917663574219e-01
1.001767754554748535e+00
1.000000000000000000e+00
9.993423819541931152e-01
1.000000000000000000e+00
1.000043749809265137e+00
1.001096248626708984e+00
1.001668453216552734e+00
1.003558516502380371e+00
1.001570940017700195e+00
1.001667261123657227e+00
1.001668572425842285e+00
9.992417693138122559e-01
9.997745752334594727e-01
9.997397065162658691e-01
1.000000000000000000e+00
9.996255636215209961e-01
9.995986223220825195e-01
1.001797914505004883e+00
9.994259476661682129e-01
9.993337988853454590e-01
1.000000000000000000e+00
1.000033140182495117e+00
9.999432563781738281e-01
9.993367791175842285e-01
1.000000000000000000e+00
9.983938932418823242e-01
1.000000000000000000e+00
9.987180829048156738e-01
1.000000000000000000e+00
9.991229176521301270e-01
1.000000000000000000e+00
-9.419253328815102577e-04
-3.322011907584965229e-04
-6.256890483200550079e-04
4.153515692451037467e-05
3.029997460544109344e-04
-3.025556681677699089e-03
-1.870082574896514416e-03
4.011847078800201416e-03
-2.960315323434770107e-04
1.021985057741403580e-02
4.909288138151168823e-03
-5.367087200284004211e-03
-2.293679397553205490e-03
8.667452493682503700e-04
8.034099009819328785e-04
7.005434017628431320e-04
-5.785409593954682350e-04
3.727089846506714821e-03
-3.823660154012031853e-05
-2.026515314355492592e-03
1.818943885155022144e-03
4.467825056053698063e-04
1.741922693327069283e-03
-1.113595208153128624e-03
2.831798279657959938e-03
3.636311739683151245e-03
-7.703824434429407120e-03
4.258712287992238998e-03
-2.067817375063896179e-03
-2.502853050827980042e-03
8.636261336505413055e-04
2.960077952593564987e-03
-1.489833230152726173e-03
4.993617534637451172e-03
6.326230941340327263e-04
-2.962669590488076210e-03
-3.252408059779554605e-04
-5.720833723898977041e-05
-3.392527811229228973e-03
-1.721506821922957897e-03
-7.753424346446990967e-03
-2.063177758827805519e-03
-3.421949688345193863e-03
2.870300377253443003e-04
-7.178192026913166046e-05
1.076461398042738438e-03
-2.913669915869832039e-03
2.380556834395974874e-04
1.635587192140519619e-03
2.204427495598793030e-03
2.052615163847804070e-03
-1.795020885765552521e-03
3.389485937077552080e-04
2.415934723103418946e-04
2.745389938354492188e-04
6.246088072657585144e-03
-1.552402158267796040e-03
-1.331138540990650654e-03
6.459327880293130875e-03
-9.334238711744546890e-04
-1.046129968017339706e-02
5.671585095115005970e-04
-4.397584998514503241e-04
2.718281757552176714e-04
5.350920371711254120e-03
-2.975699258968234062e-03
2.602987296995706856e-05
5.411166421254165471e-05
3.500799648463726044e-03
1.273469184525310993e-03
-9.413716034032404423e-04
-1.789546688087284565e-03
-2.972325310111045837e-03
4.632682539522647858e-03
7.294967770576477051e-03
-8.438067161478102207e-04
3.520638274494558573e-04
-2.237755572423338890e-03
-1.638943213038146496e-03
2.739847332122735679e-05
-1.501455320976674557e-03
-1.218634191900491714e-03
1.294314395636320114e-03
2.031543059274554253e-03
2.194343978771939874e-04
-2.615711651742458344e-03
-1.494271418778225780e-04
3.833775641396641731e-03
-1.744139241054654121e-03
-2.611701609566807747e-03
3.866472980007529259e-03
-1.815374824218451977e-03
8.498579263687133789e-03
8.563259616494178772e-03
1.811054680729284883e-04
-6.451728986576199532e-04
-7.882250356487929821e-04
4.420414566993713379e-03
6.522099720314145088e-04
-1.435977872461080551e-03
8.499156101606786251e-04
1.206415472552180290e-03
2.662208629772067070e-03
2.518546301871538162e-03
7.445155642926692963e-03
2.097987104207277298e-03
2.890464849770069122e-03
3.012225963175296783e-03
-1.384371542371809483e-03
-4.952489980496466160e-04
-7.535266922786831856e-04
5.993560989736579359e-06
-8.079875842668116093e-04
-1.085684983991086483e-03
3.961801063269376755e-03
-1.210849033668637276e-03
-1.332236453890800476e-03
1.055865141097456217e-04
1.382709015160799026e-03
5.168601273908279836e-05
-1.413009711541235447e-03
8.258254383690655231e-04
-3.350970800966024399e-03
-2.642795698193367571e-05
-2.385589992627501488e-03
-1.493929594289511442e-04
-1.644206116907298565e-03
-1.341927709290757775e-04
