-3.299708187114447355e-04
1.924021868035197258e-03
1.507833221694454551e-04
3.891523228958249092e-04
-3.257308271713554859e-04
5.712281912565231323e-03
4.232319537550210953e-03
8.422645623795688152e-04
1.219408004544675350e-03
-3.879121504724025726e-04
-1.130974706029519439e-04
-2.595232799649238586e-04
-2.025934169068932533e-03
-5.944024305790662766e-04
1.859730400610715151e-05
3.121534828096628189e-04
3.483084961771965027e-03
1.539536169730126858e-03
1.491773640736937523e-03
3.184228262398391962e-04
-6.675185286439955235e-04
1.150570344179868698e-03
9.112177067436277866e-04
-2.614140044897794724e-03
1.256086397916078568e-03
3.122212132439017296e-03
1.287364633753895760e-03
2.256573643535375595e-03
-6.685645785182714462e-04
-2.483519492670893669e-04
-3.245872911065816879e-03
1.181998988613486290e-03
-2.869639138225466013e-04
3.652089042589068413e-03
-2.136149560101330280e-04
-2.617109566926956177e-03
-1.855090813478454947e-04
3.903783624991774559e-03
-3.620936768129467964e-04
-2.733997534960508347e-04
4.060193896293640137e-03
-1.624460332095623016e-03
3.516334341838955879e-03
2.366393338888883591e-03
1.400909422955010086e-05
2.058316953480243683e-03
-3.173734527081251144e-03
-3.253314411267638206e-03
5.217409925535321236e-04
2.166823949664831161e-03
1.965429109986871481e-04
-1.386106945574283600e-03
-1.012711654766462743e-04
-1.888255123049020767e-03
-2.384874533163383603e-04
7.154689519666135311e-04
-7.386857760138809681e-05
-1.574406051076948643e-03
-2.973294816911220551e-03
4.830282181501388550e-03
-2.768520265817642212e-03
2.176655922085046768e-03
2.150824293494224548e-03
1.024892437271773815e-03
9.999980926513671875e-01
1.000957965850830078e+00
1.000000000000000000e+00
1.000000000000000000e+00
9.998425245285034180e-01
1.002698302268981934e+00
1.001762986183166504e+00
1.000009775161743164e+00
1.000000834465026855e+00
9.998656511306762695e-01
1.000000000000000000e+00
9.999999403953552246e-01
9.990616440773010254e-01
9.997969269752502441e-01
1.000000000000000000e+00
1.000000000000000000e+00
1.001546740531921387e+00
1.000576138496398926e+00
1.000015616416931152e+00
1.000000000000000000e+00
9.998333454132080078e-01
1.000039696693420410e+00
1.000049233436584473e+00
9.987155795097351074e-01
1.000038146972656250e+00
1.001671671867370605e+00
1.000020742416381836e+00
1.001216053962707520e+00
9.998008012771606445e-01
9.999035596847534180e-01
9.984193444252014160e-01
1.000019669532775879e+00
9.998826384544372559e-01
1.001671791076660156e+00
9.998522996902465820e-01
9.985595941543579102e-01
1.000000000000000000e+00
1.001670598983764648e+00
9.999097585678100586e-01
9.999963045120239258e-01
1.001747727394104004e+00
9.990756511688232422e-01
1.001668214797973633e+00
1.001485705375671387e+00
1.000000000000000000e+00
1.001201391220092773e+00
9.984919428825378418e-01
9.984517097473144531e-01
1.000000000000000000e+00
1.001591205596923828e+00
1.000000000000000000e+00
9.995174407958984375e-01
1.000000000000000000e+00
9.989023804664611816e-01
1.000000000000000000e+00
1.000000119209289551e+00
1.000000000000000000e+00
9.991052150726318359e-01
9.985278844833374023e-01
1.002586483955383301e+00
9.986370205879211426e-01
1.001632452011108398e+00
1.001311898231506348e+00
1.000000000000000000e+00
2.024015266215428710e-04
-4.253770166542381048e-04
-2.100858837366104126e-03
9.649781713960692286e-05
-8.099583908915519714e-03
3.224062267690896988e-03
-2.154863905161619186e-03
-1.832538866437971592e-03
1.864358200691640377e-04
4.898364190012216568e-03
8.897656516637653112e-05
-6.993716815486550331e-04
-7.013843278400599957e-04
2.019592095166444778e-03
-2.572347177192568779e-03
-4.573534170049242675e-05
-3.018555929884314537e-03
-1.482930034399032593e-03
6.590020493604242802e-04
1.072674640454351902e-03
1.464349683374166489e-03
-4.582792986184358597e-03
1.065666903741657734e-03
7.960126735270023346e-03
6.974948104470968246e-03
3.912351094186306000e-03
2.107723616063594818e-03
-1.434898731531575322e-04
2.684347797185182571e-03
5.264396779239177704e-03
-7.162148598581552505e-03
4.302376415580511093e-03
-5.904817371629178524e-04
-4.394096788018941879e-03
-2.194374566897749901e-03
-3.385913558304309845e-03
1.340186863671988249e-04
1.041860436089336872e-03
1.688464893959462643e-03
-1.137084676884114742e-03
-2.383920829743146896e-03
-3.071902319788932800e-03
-1.680907211266458035e-03
1.668846700340509415e-03
-8.540081325918436050e-04
2.501964045222848654e-04
6.491125095635652542e-03
-9.786073351278901100e-04
1.219561556354165077e-03
2.216011052951216698e-03
-1.271477551199495792e-03
8.465596474707126617e-03
-3.540618345141410828e-04
1.769246737239882350e-04
1.445843721739947796e-03
-5.387622397392988205e-03
4.725879407487809658e-04
1.960476161912083626e-03
-1.871751737780869007e-03
-3.167954972013831139e-03
2.933327807113528252e-03
-1.183185959234833717e-03
-3.372079227119684219e-03
-2.584760310128331184e-03
-3.234399482607841492e-04
1.853064866736531258e-03
1.500928483437746763e-04
3.856927796732634306e-04
-3.271405294071882963e-04
5.973386112600564957e-03
4.435303620994091034e-03
8.656540303491055965e-04
1.199585036374628544e-03
-3.896831767633557320e-04
-1.129789816332049668e-04
-2.578464627731591463e-04
-1.991577446460723877e-03
-5.819239304400980473e-04
1.565597631270065904e-05
3.183676744811236858e-04
3.581620985642075539e-03
1.552131841890513897e-03
1.501863240264356136e-03
3.164058143738657236e-04
-6.563089555129408836e-04
1.135928090661764145e-03
9.360837866552174091e-04
-2.593072131276130676e-03
1.241339487023651600e-03
3.166524926200509071e-03
1.304044853895902634e-03
2.236358821392059326e-03
-6.502516916953027248e-04
-2.531176432967185974e-04
-3.237832803279161453e-03
1.164789078757166862e-03
-2.845081326086074114e-04
3.615055698901414871e-03
-2.155764377675950527e-04
-2.613721415400505066e-03
-1.864561054389923811e-04
4.013318102806806564e-03
-3.602329816203564405e-04
-2.653286210261285305e-04
3.942484501749277115e-03
-1.607636106200516224e-03
3.464399138465523720e-03
2.429861109703779221e-03
1.412242636433802545e-05
2.058187965303659439e-03
-3.219468286260962486e-03
-3.257515607401728630e-03
5.154035170562565327e-04
2.195432782173156738e-03
1.924455718835815787e-04
-1.386166899465024471e-03
-1.024866724037565291e-04
-1.925931777805089951e-03
-2.365841792197898030e-04
7.169923046603798866e-04
-7.254359661601483822e-05
-1.552452798932790756e-03
-2.963329199701547623e-03
4.968416877090930939e-03
-2.858154242858290672e-03
2.235064283013343811e-03
2.135587157681584358e-03
1.008793013170361519e-03
